{
  "weights": [
    0.008934633853606627,
    0.03881680249982439,
    0.07761482460503366,
    -0.033874888959937705,
    -0.08610636126419256,
    -0.037849028928415906,
    0.0057283233492515795,
    -0.060281426562515346,
    -0.022650078062504894,
    -0.005034304352003291,
    0.08605074152872613,
    -0.03599634733254324,
    0.009997553008541812,
    -0.11025504743820669,
    0.004214549096724075,
    -0.05374124772566111,
    0.016114430478555014,
    0.09610139774587398,
    -0.07369540956122782,
    -0.06200528205712834,
    0.06002927706307448,
    0.008030385671175005,
    0.05659620249236383,
    -0.029643516677567025,
    -0.05031506144203633,
    -0.05165919417275981,
    0.0038767377677527276,
    0.043684588607403985,
    0.029043065518604777,
    0.03335461719200697,
    -0.02281557366820179,
    0.04367880336042082,
    0.026062522511153347,
    -0.049838491084270686,
    0.016186165572734668,
    0.013700552556889064,
    -0.20477892086699015,
    -0.3303144543861441,
    -1.0440449627708281,
    0.16437846798414732,
    4.672642805381505,
    7.794803146990918,
    2.4248320952421794,
    -0.05998118957991882,
    0.5112561729930494,
    10.26910965808452,
    21.86167848291156,
    22.644674845592938,
    3.2045031530631323,
    0.08719254793339343,
    0.02100409947676843,
    0.026150182049503312,
    -0.08005837905852367,
    0.09460235696952443,
    -0.007865957951850355,
    0.045545433434162036,
    0.05376608275647762,
    0.02394608605512312,
    0.06002689525641941,
    0.08835963423401044,
    0.03564014928130494,
    0.06414792705750927,
    -0.6741113073957634,
    -0.4978766325329525,
    -1.4612747847972818,
    -12.318168522522368,
    -10.183060006476795,
    -19.86977337337378,
    -9.291314448085359,
    -3.6971523698252677,
    -14.208216339475372,
    -3.1903359105276476,
    2.8701895518147555,
    -4.475712443722853,
    25.200913136881244,
    16.330127380644573,
    19.292175527184344,
    18.267603057700395,
    -0.8809867594125588,
    -0.13566714624107337,
    -0.062012183451967906,
    -0.08267603399973193,
    -0.0829266979134477,
    0.028891784470120724,
    -0.07293850862482268,
    0.07229602485892025,
    -0.0734816202455884,
    0.1471017058861056,
    -0.05084529161276605,
    -0.9882510446378119,
    -2.4957941897367126,
    -4.368590427625622,
    -8.641780300186669,
    14.596562396779182,
    10.39405136309392,
    -7.264860590926884,
    -9.631043708682116,
    -10.584922936340876,
    6.33846626124561,
    5.035301734066634,
    -0.32664128054616626,
    -0.5798281996259265,
    5.206922518722578,
    -12.991618956319474,
    8.978514200341076,
    12.08817058227942,
    1.3189102121325647,
    -1.4202510268640458,
    -0.20152179054791142,
    -0.051680154579918244,
    0.05986051455957297,
    -0.0235579803545969,
    -0.05081808844333329,
    0.03756491413276858,
    0.08841214592678723,
    0.015741145892377288,
    -0.2802544234488516,
    -2.0774961132655574,
    -4.702713038306568,
    -14.51026279269894,
    14.961930862245802,
    24.24852188534712,
    10.381855702348265,
    5.35009254303492,
    -17.57332072479793,
    -18.527094115939985,
    -22.38228612726826,
    11.2830298949342,
    9.59080064209746,
    -15.676991541524114,
    13.345526963041294,
    -1.361438559503965,
    9.272439514062093,
    5.243182786482176,
    15.246584078053285,
    -3.628784246910751,
    -1.6147370151453628,
    -0.1281544758519244,
    -0.06439835672849031,
    0.0602334199686497,
    0.0742163766015553,
    -0.05034108722457468,
    0.00269698216329552,
    0.06512563784274207,
    -1.2786709470777131,
    -5.580555401748243,
    -10.795325946318295,
    -7.6342991071708255,
    -6.027354659075648,
    5.881466441187673,
    -6.61066875116554,
    2.7412428421773276,
    -2.3476945999543664,
    20.203261274682525,
    4.5950384520097245,
    -9.459096459130139,
    29.34738446894859,
    -0.39785878477261555,
    20.514959172335764,
    7.372761217496868,
    -15.020735646813137,
    3.190989521296313,
    9.28832665939594,
    -6.360882304034446,
    -4.039472491411098,
    -0.9227596229802443,
    -0.21748179512716231,
    0.0095839300585393,
    0.06539174318855889,
    -0.05731454830342463,
    -0.20084932239701292,
    0.018459050519479322,
    -2.6243759868291305,
    -7.508801798316461,
    14.179025387009345,
    -2.389551488082147,
    -10.161166904241785,
    -8.099496620507528,
    4.746116504516449,
    4.921841058713526,
    11.892755009607137,
    -5.061229489034085,
    1.0515569712505737,
    13.18316714928603,
    4.547656351566279,
    -4.210029526036409,
    14.859112614094526,
    11.2714088063445,
    4.815892872106872,
    9.68174144223502,
    10.293432793789739,
    -7.878875556435463,
    -7.397846511946934,
    -3.313508733342626,
    -1.6610920044988986,
    -0.1639835780955767,
    0.012396345575048845,
    0.009839579785641678,
    0.0024516520328789182,
    -0.3646380546205028,
    -4.104212252779907,
    -1.477236709131387,
    -1.8287618824921001,
    -2.3317781681982366,
    -17.395953505424142,
    11.293357086098942,
    -14.020089087244031,
    7.581740357452891,
    -0.3898563160370399,
    19.67862347445847,
    -6.350375443659637,
    5.123070590805258,
    1.26566045828627,
    17.942347971117595,
    13.865489307396201,
    11.973796591005827,
    -6.375043919446177,
    19.654862935796917,
    -0.017753790086572428,
    0.15450536591449607,
    -8.382436336055553,
    -4.986557577739157,
    -2.1812779367256527,
    0.24077612584189167,
    0.05266530257155272,
    0.03863197921323643,
    -0.15223840812208456,
    -1.234866931538036,
    -7.215468727018071,
    3.3213547913043535,
    6.178065732634336,
    -4.991999659792733,
    -21.236624180015703,
    -14.733448278063284,
    -13.676670255496008,
    -11.30720295495672,
    -17.996386120387424,
    -3.736933679406225,
    3.929358244214479,
    31.428724334616987,
    16.983973393617486,
    -4.214755838988676,
    17.27917280867631,
    -7.348927360266228,
    18.4105557567679,
    11.122124949642618,
    -11.734109802142969,
    8.618550509181985,
    -9.015388640810995,
    -7.705600326995078,
    -2.7426644577187025,
    0.004956684295911401,
    -0.030693437162311113,
    -0.1067293236371288,
    0.042791901278179216,
    -2.961219528298175,
    -10.877206377054696,
    0.367365430824858,
    15.72829243127755,
    7.519184052406183,
    17.80784062173411,
    -3.8343262542307825,
    13.829999360651586,
    -19.027766919179708,
    -9.413010010670536,
    1.0466443749828476,
    -10.35672166772283,
    7.359139597143482,
    12.085006534957486,
    7.947649984597228,
    13.567702507287677,
    -2.736068900401664,
    13.0445571255128,
    1.0021367749788124,
    -5.175300031795119,
    7.488478953175882,
    -7.767805636802096,
    -8.591313197088713,
    -2.3182738167287624,
    -0.006992948694116638,
    -0.062043737528729576,
    -0.0030690769598257775,
    0.28804570535495366,
    -4.120762552244669,
    -4.332660910365405,
    2.8994608669439335,
    16.428540956754688,
    -3.219802799819424,
    10.24031203590315,
    2.461315499570104,
    -9.639553225840192,
    8.073309733764567,
    -5.172446430079667,
    -13.101091345273694,
    -15.126363605963778,
    11.73921049871813,
    14.508725073412869,
    9.689693017271722,
    11.595138098301398,
    10.856446985056039,
    5.870283649817351,
    7.725231595722647,
    3.7529115935022475,
    13.365636905157402,
    -3.511767343053788,
    -5.133119543566071,
    -2.4018814876106793,
    0.062132937114716874,
    -0.018129000083102732,
    -0.07175834291085342,
    -0.19181849227593756,
    -3.1173209471800374,
    -4.573937845218892,
    0.4350466012977578,
    5.408251114247016,
    19.240889770573908,
    -1.863814039449674,
    5.702449133214599,
    -2.29656198556052,
    4.786076566156909,
    7.821650430793901,
    -49.3178470262256,
    -9.460770097251935,
    0.3275328864129732,
    18.283777261393695,
    -4.824374987461673,
    24.38869259942557,
    8.392545358077594,
    0.09562105494327673,
    11.443844897577446,
    5.826009951190018,
    12.737746250949774,
    0.6532772434271543,
    -2.164563435416351,
    -0.6354165434213456,
    -0.02634319344325326,
    -0.0709592542159098,
    -0.14931390011881862,
    -0.024529447181173343,
    -2.906037911899602,
    -7.244932810470126,
    9.122395871993373,
    0.1670843951435081,
    13.728130716688206,
    -0.8522861231280675,
    3.3150188950236705,
    9.764750103349563,
    -11.191459804398633,
    8.300145772081823,
    -24.15537726590016,
    -36.821409816361104,
    -22.002125578353446,
    -25.4295083439678,
    12.432167712845196,
    2.798587480373067,
    5.578559706112612,
    2.30592964351856,
    10.323795848326679,
    10.592178880823099,
    1.4425801450076836,
    5.818666490148624,
    0.890032897801915,
    -0.11427525206402055,
    -0.06295756540948426,
    -0.022903938872866764,
    0.11749809188550989,
    0.008039651127633198,
    -4.513844242374551,
    -8.001043750590476,
    6.388951982575328,
    9.873801798519589,
    17.93744196047367,
    2.250180558231953,
    5.547190816345079,
    -9.344966015086209,
    17.19596787092005,
    -5.012339200554984,
    -37.37057256793304,
    -12.941335765768407,
    10.55628851245153,
    -9.506509845695032,
    -3.862936706948415,
    -7.067833348379473,
    5.079371292853793,
    -14.237044219692642,
    4.220667911460351,
    11.498564901366358,
    -3.807091014415155,
    5.145199840465124,
    2.2735299565409983,
    -0.0012962239913450486,
    0.00012975350014510136,
    0.05191895302156191,
    0.0038169263923309715,
    -0.1653765178225112,
    -5.43362219009725,
    -10.1944633031318,
    5.873054502306597,
    14.889949971695616,
    1.44778321076704,
    20.581054956660413,
    -5.398614899903609,
    11.995583918146739,
    -23.17177539919786,
    13.260677714836653,
    -23.809833215955816,
    -34.30464213414841,
    -19.885787433765728,
    -26.362346145527585,
    -8.576389292387272,
    2.9320416494142556,
    0.4693360580950929,
    10.128051719554552,
    1.5165795122006336,
    12.399635305810978,
    -1.8921948470590548,
    5.252261456755237,
    2.031143834363062,
    -0.05801032360896689,
    -0.06658149915021305,
    0.09406318166596031,
    -0.0003165240341077291,
    -0.557275108379351,
    -5.400515051126825,
    -8.934840600631949,
    5.232863705391594,
    11.474436103849701,
    -1.715309008069454,
    24.13881603715452,
    14.771375072070377,
    -13.312411250686594,
    28.30763733756584,
    -11.776205734700106,
    -31.405576754808635,
    -29.22581435468209,
    -5.1462494664065845,
    -13.468615835587606,
    -20.056353440824036,
    6.607414832679509,
    -1.2984599997932875,
    17.641122933050124,
    -0.42936497689942693,
    15.67985229905106,
    -1.0685172811412285,
    6.235438327187624,
    0.4718708252165778,
    0.02194853341101892,
    0.07455978859158363,
    0.08885977076765303,
    -0.08860491234139771,
    -0.3784185354590328,
    -6.259242028392215,
    -18.26780218740271,
    17.51791296377072,
    -7.798919641259746,
    15.654964715473728,
    -1.7205757807503126,
    15.135500665562038,
    -3.4074168639865947,
    17.94004973190209,
    -14.799492372219172,
    -29.92841526237292,
    -7.646817141745475,
    -6.955029127134456,
    -14.33673891941638,
    -7.692498968424536,
    0.17139292143247747,
    -0.7551721997828995,
    -7.60190957554325,
    -0.11580973740897074,
    -13.132224910499923,
    -0.552775325252802,
    4.829076417420258,
    -0.7134414955553386,
    -0.104237489312874,
    -0.09609988575177998,
    0.054212974062853164,
    0.027616375253882216,
    -0.3766300960470549,
    -7.584819293327246,
    -15.61858532817768,
    14.442645797102092,
    2.2816001705610387,
    -4.824784672291469,
    -2.3187163418376167,
    -10.595290765635532,
    5.14869170724388,
    14.422987605091047,
    -19.523508822247347,
    -17.150483956893535,
    -26.577384867249386,
    1.4627963604045566,
    -12.751586709477651,
    9.666045133557454,
    -10.896156569352907,
    18.105692853291643,
    -9.701422896964198,
    9.174867201433232,
    -3.081705959787293,
    3.048937950635248,
    -0.38023735714584106,
    -0.4249870904555123,
    -0.145462737148991,
    0.35710957709509,
    -0.054029648049843816,
    -0.04174761195259312,
    -0.5673905495601343,
    -10.37152615874579,
    -15.560931087306756,
    5.734043194676497,
    4.595087023306375,
    6.717646998774272,
    -15.323654343043675,
    15.252793940868628,
    9.465448105512014,
    13.359243758282751,
    -30.722280703555416,
    0.17220109810220535,
    -10.029435119111536,
    -23.21606280703745,
    -14.373899984999039,
    -2.2598765316494607,
    -9.90376433313638,
    -2.2832901486881623,
    -7.830998176463169,
    -1.9338847148741092,
    0.017381772531794383,
    -0.8817494688086731,
    -3.6816680065787795,
    -0.12757596594813592,
    -0.07250462056603513,
    0.0087166820566397,
    0.06242969022348885,
    0.11601182134941691,
    -0.5534832632794199,
    -9.521152460783481,
    -19.469783282034523,
    -8.158447541165069,
    16.644465369566895,
    -1.5229215186306224,
    -7.299333950163191,
    9.673152688280553,
    -2.9120384557955377,
    16.091990248640826,
    8.961792328733623,
    -0.9257002821323883,
    13.388988043964316,
    -17.583943870776903,
    10.782684728570121,
    -6.365255094842055,
    1.3234938681694688,
    -6.275458927577654,
    9.755359354353438,
    -10.1893518594401,
    -0.03517429752767331,
    -6.401484874751639,
    -5.875466439057778,
    -0.6880081381187674,
    -0.10959608474721425,
    0.03503140143560851,
    0.0024121127135906806,
    0.37633978894018133,
    -0.7173969271996652,
    -8.00199020518707,
    -14.434896464372418,
    -0.2947607207314143,
    -4.289841702142886,
    -2.2266053393918863,
    -25.680785435818883,
    13.1549068221311,
    28.471158818580786,
    -26.284756777536497,
    19.924280824673964,
    -4.170845037374194,
    3.8878367878084985,
    -24.301021052511572,
    -14.266312137039026,
    9.000490534743737,
    -15.833214522601022,
    -2.4887001166072604,
    -14.472804386422403,
    -4.877786724736242,
    -6.4370847024715685,
    -8.598033642621289,
    -4.090458859130554,
    -0.5791249769332533,
    -0.07796503971035093,
    -0.07737779370327275,
    -0.0818415852169257,
    -0.17581287125028502,
    -1.8285534838586035,
    -5.319325421411338,
    -9.127401363657757,
    -4.766892186456865,
    4.973416712003253,
    -12.99851545267735,
    -7.189380445057304,
    15.702296058027976,
    -2.541526128677918,
    -8.208227830171374,
    8.968361177369918,
    20.334014438621562,
    -2.999536071619099,
    -7.20687818794466,
    -0.4835093478632777,
    -9.240257427949853,
    -13.865121023682436,
    -6.194138726251787,
    -9.361894315270058,
    -10.542540332178199,
    -8.174316500362506,
    -6.892398368491946,
    -2.4637629728561814,
    -0.30336964377512915,
    0.2806863865238621,
    -0.04787351385294928,
    0.020944182060908936,
    -0.0626715169982854,
    -0.9990229927143848,
    -4.325238834422349,
    -11.316818629228424,
    -10.726015438877159,
    16.4068704812424,
    -15.80909298316627,
    -19.34044371758983,
    18.099838083550985,
    -10.305721514331461,
    8.089924161472302,
    8.643140653909974,
    8.211579098259998,
    -10.847416442403855,
    -8.124612451552668,
    -20.82870070363317,
    6.725651060108872,
    -0.6658565651681845,
    -17.269823326753166,
    -11.847287258326222,
    -11.34352433070696,
    -7.840467458067743,
    -4.750882357754878,
    -2.134651577072579,
    -0.16587356934837924,
    0.0030650316490934723,
    0.008683179043442207,
    -0.029611039251267957,
    0.05908759056235546,
    0.03729824239540537,
    -0.9628127650977567,
    -5.385832516588992,
    -4.807525251632182,
    -9.313732457813742,
    21.38478702188614,
    -6.887366753622673,
    18.780340909710826,
    13.39728516222617,
    -0.5158942379360071,
    -0.043635603019842865,
    1.8784793765866632,
    7.836101668649465,
    -3.861524517625968,
    -6.236981389651393,
    -6.491224670033519,
    -3.5593541094488503,
    -16.685226127367564,
    -14.635643545819693,
    -12.64792945605663,
    -6.92960854212314,
    -3.8587312679088237,
    -1.624221503759434,
    -0.018015234588007144,
    -0.06411047274811962,
    0.061583790794252,
    0.060259655354473335,
    0.040751171334134806,
    -0.14458095438818552,
    -0.2926078550349436,
    -1.8599499838811453,
    -3.425762357270568,
    -6.201338904579228,
    -11.307831538676279,
    -10.591099332297995,
    10.55548059208334,
    -8.2269081286986,
    -7.807089219405568,
    1.0962582300507775,
    6.78001713782126,
    -2.1893166195450564,
    -11.946207515703998,
    -13.838835181962342,
    -8.25450915047058,
    -18.12549155987625,
    -12.596433159687274,
    -10.459564136335345,
    -8.624921431418704,
    -5.563286008982957,
    -2.8344961996545064,
    -0.8608509577867374,
    -0.13884726157852575,
    0.06717367675144875,
    0.0855877282216422,
    0.06255586481385739,
    0.08437711134455009,
    -0.0546074197677428,
    0.041858141753156775,
    -0.02216191596300448,
    -1.5642279116707922,
    -6.401457048790429,
    -15.748040779281922,
    -30.741985169200355,
    -26.7556222297105,
    -19.913705395114242,
    -6.829582695762193,
    -4.0455079374092024,
    -24.552708348000113,
    -27.23847605852168,
    -31.87951303919244,
    -21.831784729992776,
    -18.077289731324477,
    -13.35174310241248,
    -7.341820374183046,
    -4.660021503837115,
    -3.586905058451902,
    -2.7656739088828446,
    -0.8275089384874724,
    -0.1916342292189325,
    -0.08978023753486469,
    0.08149727532869996,
    -0.058699032092928795,
    -0.04474252680506968,
    -0.009580090863486393,
    0.01089887277526462,
    0.028104774431077895,
    -0.007301691616322516,
    -1.2317805466188487,
    -4.616096161495625,
    -8.214496574962075,
    -11.644478433046993,
    -15.285162439543802,
    -15.834082056740014,
    -13.45517747162015,
    -9.086315212240512,
    -9.752911496909514,
    -11.260073645689577,
    -8.060807349431135,
    -7.7620726450346185,
    -4.717452162084227,
    -2.9154617407837917,
    -1.3954564055612146,
    -0.5055388584256038,
    -0.9346345674105174,
    -1.5246013921728012,
    -0.2869546309194265,
    -0.08601486718550207,
    0.07436468279931319,
    0.03847571780172501,
    0.05555945096691911,
    -0.04975853694745919,
    0.05719839259241116,
    0.026475399835884428,
    0.005686742909386339,
    0.05925541850165658,
    -0.3637522570012825,
    -1.0977105051417468,
    -1.0386477453402811,
    -0.8880626280176948,
    -0.7725282967901245,
    -0.2256736246233144,
    -0.3075017018241746,
    -0.4855776587569084,
    -1.0463875668834972,
    -2.400857630822599,
    -3.8575685611672754,
    -1.6964233721508297,
    -0.3659138349925613,
    -0.28745238993761557,
    0.005848444125662016,
    -0.06384104325072058,
    -0.4281993885911077,
    -1.5621580407480775,
    -0.45794493866243835,
    0.0993044043041863,
    0.03041290084703993,
    0.00047830735155460213,
    -0.09154331650249492
  ],
  "bias": -115.7744896776755
}